{
  "feature_mean": [
    0.2575064530709582,
    0.01636023285033047,
    0.02255735800005233
  ],
  "feature_std": [
    0.12313236377710995,
    0.08094291706246674,
    0.0035344472320366
  ],
  "weights": [
    [
      -0.0003694327276409509,
      -7.218164918491143e-05,
      2.529273232839589e-05
    ],
    [
      -0.00039634033361195573,
      -7.743899437724154e-05,
      2.713492665637391e-05
    ],
    [
      0.0003989583430711245,
      7.795051440841872e-05,
      -2.731416527689933e-05
    ]
  ],
  "bias": [
    -0.0004873624424106375,
    -9.522335789954456e-05,
    3.336663722654191e-05
  ],
  "log_std": [
    -6.502290170873973,
    -6.502290170873973,
    -6.502290170873973
  ],
  "action_scale": [
    0.018,
    0.018,
    0.01
  ],
  "metadata": {
    "episodes": 15,
    "batch_size": 5,
    "elite_frac": 0.4,
    "init_std": 0.004,
    "std_floor": 0.0015,
    "ridge": 0.001,
    "seed": 7,
    "place_xy": [
      0.32,
      0.2
    ],
    "randomize_xy": 0.04,
    "avg_reward": -2.669335809255922,
    "success_rate": 0.0,
    "best_reward": -0.8655931374257078,
    "best_action": [
      0.0,
      0.0,
      0.0
    ]
  }
}